Language model created by QuickLM on Mon May 15 22:47:55 EDT 2023
Copyright (c) 1996-2010 Carnegie Mellon University and Alexander I. Rudnicky

The model is in standard ARPA format, designed by Doug Paul while he was at MITRE.

The code that was used to produce this language model is available in Open Source.
Please visit http://www.speech.cs.cmu.edu/tools/ for more information

The (fixed) discount mass is 0.5. The backoffs are computed using the ratio method.
This model based on a corpus of 50 sentences and 52 words

\data\
ngram 1=52
ngram 2=100
ngram 3=50

\1-grams:
-0.7782 </s> -0.3010
-0.7782 <s> -0.2218
-2.4771 ABOUT -0.2218
-2.4771 ADOBE -0.2218
-2.4771 AIRBNB -0.2218
-2.4771 ALJAZEERA -0.2218
-2.4771 AMAZON -0.2218
-2.4771 APPLE -0.2218
-2.4771 BBC -0.2218
-2.4771 BBCGOODFOOD -0.2218
-2.4771 BBCWORLDSERVICE -0.2218
-2.4771 BEHANCE -0.2218
-2.4771 BITLY -0.2218
-2.4771 BLOOMBERG -0.2218
-2.4771 CANVA -0.2218
-2.4771 DRIBBBLE -0.2218
-2.4771 DROPBOX -0.2218
-2.4771 ECONOMIST -0.2218
-2.4771 ETSY -0.2218
-2.4771 FACEBOOK -0.2218
-2.4771 FEEDBURNER -0.2218
-2.4771 GITHUB -0.2218
-2.4771 GO -0.2218
-2.4771 GOOGLE -0.2218
-2.4771 HUFFINGTONPOST -0.2218
-2.4771 IMDB -0.2218
-2.4771 INDEPENDENT -0.2218
-2.4771 INSTAGRAM -0.2218
-2.4771 LINKEDIN -0.2218
-2.4771 MEDIUM -0.2218
-2.4771 MOZILLA -0.2218
-2.4771 NETFLIX -0.2218
-2.4771 NYTIMES -0.2218
-2.4771 PINTEREST -0.2218
-2.4771 QUORA -0.2218
-2.4771 REDDIT -0.2218
-2.4771 REUTERS -0.2218
-2.4771 RT -0.2218
-2.4771 SLIDESHARE -0.2218
-2.4771 SNAPCHAT -0.2218
-2.4771 SOUNDCLOUD -0.2218
-2.4771 SPOTIFY -0.2218
-2.4771 STACKOVERFLOW -0.2218
-2.4771 TELEGRAM -0.2218
-2.4771 THEGUARDIAN -0.2218
-2.4771 TUMBLR -0.2218
-2.4771 TWITTER -0.2218
-2.4771 VIMEO -0.2218
-2.4771 WHATSAPP -0.2218
-2.4771 WORDPRESS -0.2218
-2.4771 YOUTUBE -0.2218
-2.4771 ZOOM -0.2218

\2-grams:
-2.0000 <s> ABOUT 0.0000
-2.0000 <s> ADOBE 0.0000
-2.0000 <s> AIRBNB 0.0000
-2.0000 <s> ALJAZEERA 0.0000
-2.0000 <s> AMAZON 0.0000
-2.0000 <s> APPLE 0.0000
-2.0000 <s> BBC 0.0000
-2.0000 <s> BBCGOODFOOD 0.0000
-2.0000 <s> BBCWORLDSERVICE 0.0000
-2.0000 <s> BEHANCE 0.0000
-2.0000 <s> BITLY 0.0000
-2.0000 <s> BLOOMBERG 0.0000
-2.0000 <s> CANVA 0.0000
-2.0000 <s> DRIBBBLE 0.0000
-2.0000 <s> DROPBOX 0.0000
-2.0000 <s> ECONOMIST 0.0000
-2.0000 <s> ETSY 0.0000
-2.0000 <s> FACEBOOK 0.0000
-2.0000 <s> FEEDBURNER 0.0000
-2.0000 <s> GITHUB 0.0000
-2.0000 <s> GO 0.0000
-2.0000 <s> GOOGLE 0.0000
-2.0000 <s> HUFFINGTONPOST 0.0000
-2.0000 <s> IMDB 0.0000
-2.0000 <s> INDEPENDENT 0.0000
-2.0000 <s> INSTAGRAM 0.0000
-2.0000 <s> LINKEDIN 0.0000
-2.0000 <s> MEDIUM 0.0000
-2.0000 <s> MOZILLA 0.0000
-2.0000 <s> NETFLIX 0.0000
-2.0000 <s> NYTIMES 0.0000
-2.0000 <s> PINTEREST 0.0000
-2.0000 <s> QUORA 0.0000
-2.0000 <s> REDDIT 0.0000
-2.0000 <s> REUTERS 0.0000
-2.0000 <s> RT 0.0000
-2.0000 <s> SLIDESHARE 0.0000
-2.0000 <s> SNAPCHAT 0.0000
-2.0000 <s> SOUNDCLOUD 0.0000
-2.0000 <s> SPOTIFY 0.0000
-2.0000 <s> STACKOVERFLOW 0.0000
-2.0000 <s> TELEGRAM 0.0000
-2.0000 <s> THEGUARDIAN 0.0000
-2.0000 <s> TUMBLR 0.0000
-2.0000 <s> TWITTER 0.0000
-2.0000 <s> VIMEO 0.0000
-2.0000 <s> WHATSAPP 0.0000
-2.0000 <s> WORDPRESS 0.0000
-2.0000 <s> YOUTUBE 0.0000
-2.0000 <s> ZOOM 0.0000
-0.3010 ABOUT </s> -0.3010
-0.3010 ADOBE </s> -0.3010
-0.3010 AIRBNB </s> -0.3010
-0.3010 ALJAZEERA </s> -0.3010
-0.3010 AMAZON </s> -0.3010
-0.3010 APPLE </s> -0.3010
-0.3010 BBC </s> -0.3010
-0.3010 BBCGOODFOOD </s> -0.3010
-0.3010 BBCWORLDSERVICE </s> -0.3010
-0.3010 BEHANCE </s> -0.3010
-0.3010 BITLY </s> -0.3010
-0.3010 BLOOMBERG </s> -0.3010
-0.3010 CANVA </s> -0.3010
-0.3010 DRIBBBLE </s> -0.3010
-0.3010 DROPBOX </s> -0.3010
-0.3010 ECONOMIST </s> -0.3010
-0.3010 ETSY </s> -0.3010
-0.3010 FACEBOOK </s> -0.3010
-0.3010 FEEDBURNER </s> -0.3010
-0.3010 GITHUB </s> -0.3010
-0.3010 GO </s> -0.3010
-0.3010 GOOGLE </s> -0.3010
-0.3010 HUFFINGTONPOST </s> -0.3010
-0.3010 IMDB </s> -0.3010
-0.3010 INDEPENDENT </s> -0.3010
-0.3010 INSTAGRAM </s> -0.3010
-0.3010 LINKEDIN </s> -0.3010
-0.3010 MEDIUM </s> -0.3010
-0.3010 MOZILLA </s> -0.3010
-0.3010 NETFLIX </s> -0.3010
-0.3010 NYTIMES </s> -0.3010
-0.3010 PINTEREST </s> -0.3010
-0.3010 QUORA </s> -0.3010
-0.3010 REDDIT </s> -0.3010
-0.3010 REUTERS </s> -0.3010
-0.3010 RT </s> -0.3010
-0.3010 SLIDESHARE </s> -0.3010
-0.3010 SNAPCHAT </s> -0.3010
-0.3010 SOUNDCLOUD </s> -0.3010
-0.3010 SPOTIFY </s> -0.3010
-0.3010 STACKOVERFLOW </s> -0.3010
-0.3010 TELEGRAM </s> -0.3010
-0.3010 THEGUARDIAN </s> -0.3010
-0.3010 TUMBLR </s> -0.3010
-0.3010 TWITTER </s> -0.3010
-0.3010 VIMEO </s> -0.3010
-0.3010 WHATSAPP </s> -0.3010
-0.3010 WORDPRESS </s> -0.3010
-0.3010 YOUTUBE </s> -0.3010
-0.3010 ZOOM </s> -0.3010

\3-grams:
-0.3010 <s> ABOUT </s>
-0.3010 <s> ADOBE </s>
-0.3010 <s> AIRBNB </s>
-0.3010 <s> ALJAZEERA </s>
-0.3010 <s> AMAZON </s>
-0.3010 <s> APPLE </s>
-0.3010 <s> BBC </s>
-0.3010 <s> BBCGOODFOOD </s>
-0.3010 <s> BBCWORLDSERVICE </s>
-0.3010 <s> BEHANCE </s>
-0.3010 <s> BITLY </s>
-0.3010 <s> BLOOMBERG </s>
-0.3010 <s> CANVA </s>
-0.3010 <s> DRIBBBLE </s>
-0.3010 <s> DROPBOX </s>
-0.3010 <s> ECONOMIST </s>
-0.3010 <s> ETSY </s>
-0.3010 <s> FACEBOOK </s>
-0.3010 <s> FEEDBURNER </s>
-0.3010 <s> GITHUB </s>
-0.3010 <s> GO </s>
-0.3010 <s> GOOGLE </s>
-0.3010 <s> HUFFINGTONPOST </s>
-0.3010 <s> IMDB </s>
-0.3010 <s> INDEPENDENT </s>
-0.3010 <s> INSTAGRAM </s>
-0.3010 <s> LINKEDIN </s>
-0.3010 <s> MEDIUM </s>
-0.3010 <s> MOZILLA </s>
-0.3010 <s> NETFLIX </s>
-0.3010 <s> NYTIMES </s>
-0.3010 <s> PINTEREST </s>
-0.3010 <s> QUORA </s>
-0.3010 <s> REDDIT </s>
-0.3010 <s> REUTERS </s>
-0.3010 <s> RT </s>
-0.3010 <s> SLIDESHARE </s>
-0.3010 <s> SNAPCHAT </s>
-0.3010 <s> SOUNDCLOUD </s>
-0.3010 <s> SPOTIFY </s>
-0.3010 <s> STACKOVERFLOW </s>
-0.3010 <s> TELEGRAM </s>
-0.3010 <s> THEGUARDIAN </s>
-0.3010 <s> TUMBLR </s>
-0.3010 <s> TWITTER </s>
-0.3010 <s> VIMEO </s>
-0.3010 <s> WHATSAPP </s>
-0.3010 <s> WORDPRESS </s>
-0.3010 <s> YOUTUBE </s>
-0.3010 <s> ZOOM </s>

\end\
