Language model created by QuickLM on Thu May 11 02:57:14 EDT 2023
Copyright (c) 1996-2010 Carnegie Mellon University and Alexander I. Rudnicky

The model is in standard ARPA format, designed by Doug Paul while he was at MITRE.

The code that was used to produce this language model is available in Open Source.
Please visit http://www.speech.cs.cmu.edu/tools/ for more information

The (fixed) discount mass is 0.5. The backoffs are computed using the ratio method.
This model based on a corpus of 100 sentences and 103 words

\data\
ngram 1=103
ngram 2=208
ngram 3=167

\1-grams:
-0.9191 </s> -0.3010
-0.9191 <s> -0.2453
-2.6180 ADOBE -0.2447
-2.9191 ADS -0.2453
-2.9191 ALIBABA -0.2453
-2.9191 ALIPAY -0.2453
-2.9191 AMAZON -0.2453
-2.9191 APPLE -0.2453
-2.9191 ARABIC -0.2453
-2.9191 ARGENTINA -0.2453
-2.9191 AUSTRALIA -0.2453
-2.9191 BAIDU -0.2453
-2.9191 BBC -0.2453
-2.9191 BOOKING.COM -0.2453
-2.9191 BOOKS -0.2453
-2.9191 BRAZIL -0.2453
-2.9191 CALENDAR -0.2453
-2.9191 CANADA -0.2453
-2.9191 CHINA -0.2453
-2.9191 CHINESE -0.2453
-2.9191 CITATIONS -0.2453
-2.9191 CLASSROOM -0.2453
-2.9191 CLOUD -0.2453
-2.9191 CREATIVE -0.3005
-2.9191 DOCS -0.2453
-2.6180 DRIVE -0.2447
-2.9191 DUCKDUCKGO -0.2453
-2.9191 DUO -0.2453
-2.9191 EARTH -0.2453
-2.9191 EBAY -0.2453
-2.9191 EDGE -0.2453
-1.8051 ENGLISH -0.2375
-2.9191 ESPN -0.2453
-2.9191 FACEBOOK -0.2453
-2.9191 FINANCE -0.2453
-2.9191 FLIGHTS -0.2453
-2.9191 FRANCE -0.2453
-2.6180 FRENCH -0.2375
-2.6180 GERMAN -0.2375
-2.9191 GERMANY -0.2453
-2.9191 GITHUB -0.2453
-1.2115 GOOGLE -0.2132
-2.9191 GUARDIAN -0.2453
-2.9191 HUAWEI -0.2453
-2.9191 IMDB -0.2453
-2.6180 INDIA -0.2453
-2.9191 INSTAGRAM -0.2453
-2.6180 ITALIAN -0.2375
-2.9191 ITALY -0.2453
-2.6180 JAPAN -0.2453
-2.9191 JD.COM -0.2453
-2.9191 KOREA -0.2453
-2.9191 LINKEDIN -0.2453
-2.9191 LOGIN -0.2453
-2.9191 MAIL -0.2453
-2.9191 MAPS -0.2453
-2.9191 MEET -0.2453
-2.9191 MEXICO -0.2453
-2.4420 MICROSOFT -0.2441
-2.9191 NAVER -0.2453
-2.9191 NETFLIX -0.2453
-1.7150 NEWS -0.2350
-2.9191 OVERFLOW -0.2453
-2.9191 PHOTOS -0.2453
-2.9191 PINTEREST -0.2453
-2.9191 PLAY -0.3005
-2.6180 PORTUGUESE -0.2375
-2.9191 QQ -0.2453
-2.9191 REDDIT -0.2453
-2.9191 RUSSIA -0.2453
-2.9191 RUSSIAN -0.2453
-2.9191 SALESFORCE -0.2453
-2.6180 SCHOLAR -0.2447
-2.9191 SINA -0.3005
-2.9191 SOHU -0.2453
-2.9191 SPAIN -0.2453
-2.6180 SPANISH -0.2375
-2.9191 STACK -0.3005
-2.9191 STORE -0.2453
-2.9191 TAOBAO -0.2453
-2.9191 TEAMS -0.2453
-2.9191 TENCENT -0.3005
-2.9191 THE -0.3005
-2.9191 TIKTOK -0.2453
-2.9191 TMALL -0.2453
-1.8051 TO -0.2872
-1.7730 TRANSLATE -0.2314
-2.9191 TRIPADVISOR -0.2453
-2.9191 TWITCH -0.2453
-2.9191 TWITTER -0.2453
-2.9191 UK -0.2453
-2.9191 VK -0.2453
-2.9191 WAYFAIR -0.2453
-2.9191 WECHAT -0.2453
-2.9191 WEIBO -0.2453
-2.9191 WHATSAPP -0.2453
-2.9191 WIKIPEDIA -0.2453
-2.9191 YAHOO! -0.2453
-2.9191 YANDEX -0.2453
-2.9191 YOUTUBE -0.2453
-2.9191 ZILLOW -0.2453
-2.9191 ZOOM -0.2453
-2.9191 ZOOMINFO -0.2453

\2-grams:
-2.0000 <s> ADOBE 0.0000
-2.3010 <s> ALIBABA 0.0000
-2.3010 <s> ALIPAY 0.0000
-2.3010 <s> AMAZON 0.0000
-2.3010 <s> APPLE 0.0000
-2.3010 <s> BAIDU 0.0000
-2.3010 <s> BBC 0.0000
-2.3010 <s> BOOKING.COM 0.0000
-2.3010 <s> DUCKDUCKGO 0.0000
-2.3010 <s> EBAY 0.0000
-2.3010 <s> ESPN 0.0000
-2.3010 <s> FACEBOOK 0.0000
-2.3010 <s> GITHUB 0.0000
-0.5935 <s> GOOGLE 0.0000
-2.3010 <s> HUAWEI 0.0000
-2.3010 <s> IMDB 0.0000
-2.3010 <s> INSTAGRAM 0.0000
-2.3010 <s> JD.COM 0.0000
-2.3010 <s> LINKEDIN 0.0000
-1.8239 <s> MICROSOFT 0.0000
-2.3010 <s> NAVER 0.0000
-2.3010 <s> NETFLIX 0.0000
-2.3010 <s> PINTEREST 0.0000
-2.3010 <s> REDDIT 0.0000
-2.3010 <s> SALESFORCE 0.0000
-2.3010 <s> SINA 0.0000
-2.3010 <s> SOHU 0.0000
-2.3010 <s> STACK 0.0000
-2.3010 <s> TAOBAO 0.0000
-2.3010 <s> TENCENT 0.0000
-2.3010 <s> THE 0.0000
-2.3010 <s> TIKTOK 0.0000
-2.3010 <s> TMALL 0.0000
-2.3010 <s> TRIPADVISOR 0.0000
-2.3010 <s> TWITCH 0.0000
-2.3010 <s> TWITTER 0.0000
-2.3010 <s> VK 0.0000
-2.3010 <s> WAYFAIR 0.0000
-2.3010 <s> WECHAT 0.0000
-2.3010 <s> WHATSAPP 0.0000
-2.3010 <s> WIKIPEDIA 0.0000
-2.3010 <s> YAHOO! 0.0000
-2.3010 <s> YANDEX 0.0000
-2.3010 <s> YOUTUBE 0.0000
-2.3010 <s> ZILLOW 0.0000
-2.3010 <s> ZOOM 0.0000
-2.3010 <s> ZOOMINFO 0.0000
-0.6021 ADOBE </s> -0.3010
-0.6021 ADOBE CREATIVE 0.0000
-0.3010 ADS </s> -0.3010
-0.3010 ALIBABA </s> -0.3010
-0.3010 ALIPAY </s> -0.3010
-0.3010 AMAZON </s> -0.3010
-0.3010 APPLE </s> -0.3010
-0.3010 ARABIC </s> -0.3010
-0.3010 ARGENTINA </s> -0.3010
-0.3010 AUSTRALIA </s> -0.3010
-0.3010 BAIDU </s> -0.3010
-0.3010 BBC </s> -0.3010
-0.3010 BOOKING.COM </s> -0.3010
-0.3010 BOOKS </s> -0.3010
-0.3010 BRAZIL </s> -0.3010
-0.3010 CALENDAR </s> -0.3010
-0.3010 CANADA </s> -0.3010
-0.3010 CHINA </s> -0.3010
-0.3010 CHINESE </s> -0.3010
-0.3010 CITATIONS </s> -0.3010
-0.3010 CLASSROOM </s> -0.3010
-0.3010 CLOUD </s> -0.3010
-0.3010 CREATIVE CLOUD 0.0000
-0.3010 DOCS </s> -0.3010
-0.6021 DRIVE </s> -0.3010
-0.6021 DRIVE LOGIN 0.0000
-0.3010 DUCKDUCKGO </s> -0.3010
-0.3010 DUO </s> -0.3010
-0.3010 EARTH </s> -0.3010
-0.3010 EBAY </s> -0.3010
-0.3010 EDGE </s> -0.3010
-0.7160 ENGLISH </s> -0.3010
-0.5119 ENGLISH TO -0.1413
-0.3010 ESPN </s> -0.3010
-0.3010 FACEBOOK </s> -0.3010
-0.3010 FINANCE </s> -0.3010
-0.3010 FLIGHTS </s> -0.3010
-0.3010 FRANCE </s> -0.3010
-0.6021 FRENCH </s> -0.3010
-0.6021 FRENCH TO -0.2083
-0.6021 GERMAN </s> -0.3010
-0.6021 GERMAN TO -0.2083
-0.3010 GERMANY </s> -0.3010
-0.3010 GITHUB </s> -0.3010
-2.0086 GOOGLE </s> -0.3010
-2.0086 GOOGLE ADS 0.0000
-2.0086 GOOGLE BOOKS 0.0000
-2.0086 GOOGLE CALENDAR 0.0000
-2.0086 GOOGLE CLASSROOM 0.0000
-2.0086 GOOGLE DOCS 0.0000
-1.7076 GOOGLE DRIVE 0.0000
-2.0086 GOOGLE DUO 0.0000
-2.0086 GOOGLE EARTH 0.0000
-2.0086 GOOGLE FINANCE 0.0000
-2.0086 GOOGLE FLIGHTS 0.0000
-2.0086 GOOGLE INDIA 0.0000
-2.0086 GOOGLE JAPAN 0.0000
-2.0086 GOOGLE MAIL 0.0000
-2.0086 GOOGLE MAPS 0.0000
-2.0086 GOOGLE MEET 0.0000
-0.8045 GOOGLE NEWS 0.0000
-2.0086 GOOGLE PHOTOS 0.0000
-2.0086 GOOGLE PLAY 0.0000
-1.7076 GOOGLE SCHOLAR 0.0000
-0.8625 GOOGLE TRANSLATE 0.0000
-0.3010 GUARDIAN </s> -0.3010
-0.3010 HUAWEI </s> -0.3010
-0.3010 IMDB </s> -0.3010
-0.3010 INDIA </s> -0.3010
-0.3010 INSTAGRAM </s> -0.3010
-0.6021 ITALIAN </s> -0.3010
-0.6021 ITALIAN TO -0.2083
-0.3010 ITALY </s> -0.3010
-0.3010 JAPAN </s> -0.3010
-0.3010 JD.COM </s> -0.3010
-0.3010 KOREA </s> -0.3010
-0.3010 LINKEDIN </s> -0.3010
-0.3010 LOGIN </s> -0.3010
-0.3010 MAIL </s> -0.3010
-0.3010 MAPS </s> -0.3010
-0.3010 MEET </s> -0.3010
-0.3010 MEXICO </s> -0.3010
-0.7782 MICROSOFT </s> -0.3010
-0.7782 MICROSOFT EDGE 0.0000
-0.7782 MICROSOFT TEAMS 0.0000
-0.3010 NAVER </s> -0.3010
-0.3010 NETFLIX </s> -0.3010
-1.5051 NEWS </s> -0.3010
-1.5051 NEWS ARGENTINA 0.0000
-1.5051 NEWS AUSTRALIA 0.0000
-1.5051 NEWS BRAZIL 0.0000
-1.5051 NEWS CANADA 0.0000
-1.5051 NEWS CHINA 0.0000
-1.5051 NEWS FRANCE 0.0000
-1.5051 NEWS GERMANY 0.0000
-1.5051 NEWS INDIA 0.0000
-1.5051 NEWS ITALY 0.0000
-1.5051 NEWS JAPAN 0.0000
-1.5051 NEWS KOREA 0.0000
-1.5051 NEWS MEXICO 0.0000
-1.5051 NEWS RUSSIA 0.0000
-1.5051 NEWS SPAIN 0.0000
-1.5051 NEWS UK 0.0000
-0.3010 OVERFLOW </s> -0.3010
-0.3010 PHOTOS </s> -0.3010
-0.3010 PINTEREST </s> -0.3010
-0.3010 PLAY STORE 0.0000
-0.6021 PORTUGUESE </s> -0.3010
-0.6021 PORTUGUESE TO -0.2083
-0.3010 QQ </s> -0.3010
-0.3010 REDDIT </s> -0.3010
-0.3010 RUSSIA </s> -0.3010
-0.3010 RUSSIAN </s> -0.3010
-0.3010 SALESFORCE </s> -0.3010
-0.6021 SCHOLAR </s> -0.3010
-0.6021 SCHOLAR CITATIONS 0.0000
-0.3010 SINA WEIBO 0.0000
-0.3010 SOHU </s> -0.3010
-0.3010 SPAIN </s> -0.3010
-0.6021 SPANISH </s> -0.3010
-0.6021 SPANISH TO -0.2083
-0.3010 STACK OVERFLOW 0.0000
-0.3010 STORE </s> -0.3010
-0.3010 TAOBAO </s> -0.3010
-0.3010 TEAMS </s> -0.3010
-0.3010 TENCENT QQ 0.0000
-0.3010 THE GUARDIAN 0.0000
-0.3010 TIKTOK </s> -0.3010
-0.3010 TMALL </s> -0.3010
-1.4150 TO ARABIC 0.0000
-1.4150 TO CHINESE 0.0000
-0.7160 TO ENGLISH -0.2083
-1.4150 TO FRENCH -0.1761
-1.4150 TO GERMAN -0.1761
-1.4150 TO ITALIAN -0.1761
-1.4150 TO PORTUGUESE -0.1761
-1.4150 TO RUSSIAN 0.0000
-1.4150 TO SPANISH -0.1761
-1.4472 TRANSLATE </s> -0.3010
-0.5441 TRANSLATE ENGLISH -0.1413
-1.4472 TRANSLATE FRENCH -0.1761
-1.4472 TRANSLATE GERMAN -0.1761
-1.4472 TRANSLATE ITALIAN -0.1761
-1.4472 TRANSLATE PORTUGUESE -0.1761
-1.4472 TRANSLATE SPANISH -0.1761
-0.3010 TRIPADVISOR </s> -0.3010
-0.3010 TWITCH </s> -0.3010
-0.3010 TWITTER </s> -0.3010
-0.3010 UK </s> -0.3010
-0.3010 VK </s> -0.3010
-0.3010 WAYFAIR </s> -0.3010
-0.3010 WECHAT </s> -0.3010
-0.3010 WEIBO </s> -0.3010
-0.3010 WHATSAPP </s> -0.3010
-0.3010 WIKIPEDIA </s> -0.3010
-0.3010 YAHOO! </s> -0.3010
-0.3010 YANDEX </s> -0.3010
-0.3010 YOUTUBE </s> -0.3010
-0.3010 ZILLOW </s> -0.3010
-0.3010 ZOOM </s> -0.3010
-0.3010 ZOOMINFO </s> -0.3010

\3-grams:
-0.6021 <s> ADOBE </s>
-0.6021 <s> ADOBE CREATIVE
-0.3010 <s> ALIBABA </s>
-0.3010 <s> ALIPAY </s>
-0.3010 <s> AMAZON </s>
-0.3010 <s> APPLE </s>
-0.3010 <s> BAIDU </s>
-0.3010 <s> BBC </s>
-0.3010 <s> BOOKING.COM </s>
-0.3010 <s> DUCKDUCKGO </s>
-0.3010 <s> EBAY </s>
-0.3010 <s> ESPN </s>
-0.3010 <s> FACEBOOK </s>
-0.3010 <s> GITHUB </s>
-2.0086 <s> GOOGLE </s>
-2.0086 <s> GOOGLE ADS
-2.0086 <s> GOOGLE BOOKS
-2.0086 <s> GOOGLE CALENDAR
-2.0086 <s> GOOGLE CLASSROOM
-2.0086 <s> GOOGLE DOCS
-1.7076 <s> GOOGLE DRIVE
-2.0086 <s> GOOGLE DUO
-2.0086 <s> GOOGLE EARTH
-2.0086 <s> GOOGLE FINANCE
-2.0086 <s> GOOGLE FLIGHTS
-2.0086 <s> GOOGLE INDIA
-2.0086 <s> GOOGLE JAPAN
-2.0086 <s> GOOGLE MAIL
-2.0086 <s> GOOGLE MAPS
-2.0086 <s> GOOGLE MEET
-0.8045 <s> GOOGLE NEWS
-2.0086 <s> GOOGLE PHOTOS
-2.0086 <s> GOOGLE PLAY
-1.7076 <s> GOOGLE SCHOLAR
-0.8625 <s> GOOGLE TRANSLATE
-0.3010 <s> HUAWEI </s>
-0.3010 <s> IMDB </s>
-0.3010 <s> INSTAGRAM </s>
-0.3010 <s> JD.COM </s>
-0.3010 <s> LINKEDIN </s>
-0.7782 <s> MICROSOFT </s>
-0.7782 <s> MICROSOFT EDGE
-0.7782 <s> MICROSOFT TEAMS
-0.3010 <s> NAVER </s>
-0.3010 <s> NETFLIX </s>
-0.3010 <s> PINTEREST </s>
-0.3010 <s> REDDIT </s>
-0.3010 <s> SALESFORCE </s>
-0.3010 <s> SINA WEIBO
-0.3010 <s> SOHU </s>
-0.3010 <s> STACK OVERFLOW
-0.3010 <s> TAOBAO </s>
-0.3010 <s> TENCENT QQ
-0.3010 <s> THE GUARDIAN
-0.3010 <s> TIKTOK </s>
-0.3010 <s> TMALL </s>
-0.3010 <s> TRIPADVISOR </s>
-0.3010 <s> TWITCH </s>
-0.3010 <s> TWITTER </s>
-0.3010 <s> VK </s>
-0.3010 <s> WAYFAIR </s>
-0.3010 <s> WECHAT </s>
-0.3010 <s> WHATSAPP </s>
-0.3010 <s> WIKIPEDIA </s>
-0.3010 <s> YAHOO! </s>
-0.3010 <s> YANDEX </s>
-0.3010 <s> YOUTUBE </s>
-0.3010 <s> ZILLOW </s>
-0.3010 <s> ZOOM </s>
-0.3010 <s> ZOOMINFO </s>
-0.3010 ADOBE CREATIVE CLOUD
-0.3010 CREATIVE CLOUD </s>
-0.3010 DRIVE LOGIN </s>
-1.2041 ENGLISH TO ARABIC
-1.2041 ENGLISH TO CHINESE
-1.2041 ENGLISH TO FRENCH
-1.2041 ENGLISH TO GERMAN
-1.2041 ENGLISH TO ITALIAN
-1.2041 ENGLISH TO PORTUGUESE
-1.2041 ENGLISH TO RUSSIAN
-1.2041 ENGLISH TO SPANISH
-0.3010 FRENCH TO ENGLISH
-0.3010 GERMAN TO ENGLISH
-0.3010 GOOGLE ADS </s>
-0.3010 GOOGLE BOOKS </s>
-0.3010 GOOGLE CALENDAR </s>
-0.3010 GOOGLE CLASSROOM </s>
-0.3010 GOOGLE DOCS </s>
-0.6021 GOOGLE DRIVE </s>
-0.6021 GOOGLE DRIVE LOGIN
-0.3010 GOOGLE DUO </s>
-0.3010 GOOGLE EARTH </s>
-0.3010 GOOGLE FINANCE </s>
-0.3010 GOOGLE FLIGHTS </s>
-0.3010 GOOGLE INDIA </s>
-0.3010 GOOGLE JAPAN </s>
-0.3010 GOOGLE MAIL </s>
-0.3010 GOOGLE MAPS </s>
-0.3010 GOOGLE MEET </s>
-1.5051 GOOGLE NEWS </s>
-1.5051 GOOGLE NEWS ARGENTINA
-1.5051 GOOGLE NEWS AUSTRALIA
-1.5051 GOOGLE NEWS BRAZIL
-1.5051 GOOGLE NEWS CANADA
-1.5051 GOOGLE NEWS CHINA
-1.5051 GOOGLE NEWS FRANCE
-1.5051 GOOGLE NEWS GERMANY
-1.5051 GOOGLE NEWS INDIA
-1.5051 GOOGLE NEWS ITALY
-1.5051 GOOGLE NEWS JAPAN
-1.5051 GOOGLE NEWS KOREA
-1.5051 GOOGLE NEWS MEXICO
-1.5051 GOOGLE NEWS RUSSIA
-1.5051 GOOGLE NEWS SPAIN
-1.5051 GOOGLE NEWS UK
-0.3010 GOOGLE PHOTOS </s>
-0.3010 GOOGLE PLAY STORE
-0.6021 GOOGLE SCHOLAR </s>
-0.6021 GOOGLE SCHOLAR CITATIONS
-1.4472 GOOGLE TRANSLATE </s>
-0.5441 GOOGLE TRANSLATE ENGLISH
-1.4472 GOOGLE TRANSLATE FRENCH
-1.4472 GOOGLE TRANSLATE GERMAN
-1.4472 GOOGLE TRANSLATE ITALIAN
-1.4472 GOOGLE TRANSLATE PORTUGUESE
-1.4472 GOOGLE TRANSLATE SPANISH
-0.3010 ITALIAN TO ENGLISH
-0.3010 MICROSOFT EDGE </s>
-0.3010 MICROSOFT TEAMS </s>
-0.3010 NEWS ARGENTINA </s>
-0.3010 NEWS AUSTRALIA </s>
-0.3010 NEWS BRAZIL </s>
-0.3010 NEWS CANADA </s>
-0.3010 NEWS CHINA </s>
-0.3010 NEWS FRANCE </s>
-0.3010 NEWS GERMANY </s>
-0.3010 NEWS INDIA </s>
-0.3010 NEWS ITALY </s>
-0.3010 NEWS JAPAN </s>
-0.3010 NEWS KOREA </s>
-0.3010 NEWS MEXICO </s>
-0.3010 NEWS RUSSIA </s>
-0.3010 NEWS SPAIN </s>
-0.3010 NEWS UK </s>
-0.3010 PLAY STORE </s>
-0.3010 PORTUGUESE TO ENGLISH
-0.3010 SCHOLAR CITATIONS </s>
-0.3010 SINA WEIBO </s>
-0.3010 SPANISH TO ENGLISH
-0.3010 STACK OVERFLOW </s>
-0.3010 TENCENT QQ </s>
-0.3010 THE GUARDIAN </s>
-0.3010 TO ARABIC </s>
-0.3010 TO CHINESE </s>
-0.3010 TO ENGLISH </s>
-0.3010 TO FRENCH </s>
-0.3010 TO GERMAN </s>
-0.3010 TO ITALIAN </s>
-0.3010 TO PORTUGUESE </s>
-0.3010 TO RUSSIAN </s>
-0.3010 TO SPANISH </s>
-0.3010 TRANSLATE ENGLISH TO
-0.3010 TRANSLATE FRENCH TO
-0.3010 TRANSLATE GERMAN TO
-0.3010 TRANSLATE ITALIAN TO
-0.3010 TRANSLATE PORTUGUESE TO
-0.3010 TRANSLATE SPANISH TO

\end\
